digraph Tree {
node [shape=box] ;
0 [label="X[1] <= 0.2778\ngini = 0.4432\nsamples = 546\nvalue = [365, 181]"] ;
1 [label="X[5] <= 0.5\ngini = 0.1096\nsamples = 378\nvalue = [356, 22]"] ;
0 -> 1 [labeldistance=2.5, labelangle=45, headlabel="True"] ;
2 [label="X[7] <= 0.8333\ngini = 0.0533\nsamples = 365\nvalue = [355, 10]"] ;
1 -> 2 ;
3 [label="X[5] <= 0.1667\ngini = 0.0274\nsamples = 360\nvalue = [355, 5]"] ;
2 -> 3 ;
4 [label="gini = 0.0\nsamples = 333\nvalue = [333, 0]"] ;
3 -> 4 ;
5 [label="X[0] <= 0.5\ngini = 0.3018\nsamples = 27\nvalue = [22, 5]"] ;
3 -> 5 ;
6 [label="X[7] <= 0.1667\ngini = 0.2112\nsamples = 25\nvalue = [22, 3]"] ;
5 -> 6 ;
7 [label="X[4] <= 0.0556\ngini = 0.0907\nsamples = 21\nvalue = [20, 1]"] ;
6 -> 7 ;
8 [label="X[0] <= 0.1667\ngini = 0.5\nsamples = 2\nvalue = [1, 1]"] ;
7 -> 8 ;
9 [label="gini = 0.0\nsamples = 1\nvalue = [1, 0]"] ;
8 -> 9 ;
10 [label="gini = 0.0\nsamples = 1\nvalue = [0, 1]"] ;
8 -> 10 ;
11 [label="gini = 0.0\nsamples = 19\nvalue = [19, 0]"] ;
7 -> 11 ;
12 [label="X[4] <= 0.1667\ngini = 0.5\nsamples = 4\nvalue = [2, 2]"] ;
6 -> 12 ;
13 [label="gini = 0.0\nsamples = 2\nvalue = [0, 2]"] ;
12 -> 13 ;
14 [label="gini = 0.0\nsamples = 2\nvalue = [2, 0]"] ;
12 -> 14 ;
15 [label="gini = 0.0\nsamples = 2\nvalue = [0, 2]"] ;
5 -> 15 ;
16 [label="gini = 0.0\nsamples = 5\nvalue = [0, 5]"] ;
2 -> 16 ;
17 [label="X[3] <= 0.3889\ngini = 0.142\nsamples = 13\nvalue = [1, 12]"] ;
1 -> 17 ;
18 [label="gini = 0.0\nsamples = 9\nvalue = [0, 9]"] ;
17 -> 18 ;
19 [label="X[0] <= 0.6111\ngini = 0.375\nsamples = 4\nvalue = [1, 3]"] ;
17 -> 19 ;
20 [label="gini = 0.0\nsamples = 1\nvalue = [1, 0]"] ;
19 -> 20 ;
21 [label="gini = 0.0\nsamples = 3\nvalue = [0, 3]"] ;
19 -> 21 ;
22 [label="X[2] <= 0.1667\ngini = 0.1014\nsamples = 168\nvalue = [9, 159]"] ;
0 -> 22 [labeldistance=2.5, labelangle=-45, headlabel="False"] ;
23 [label="gini = 0.0\nsamples = 1\nvalue = [1, 0]"] ;
22 -> 23 ;
24 [label="X[6] <= 0.3889\ngini = 0.0912\nsamples = 167\nvalue = [8, 159]"] ;
22 -> 24 ;
25 [label="X[0] <= 0.6111\ngini = 0.233\nsamples = 52\nvalue = [7, 45]"] ;
24 -> 25 ;
26 [label="X[3] <= 0.5\ngini = 0.4321\nsamples = 19\nvalue = [6, 13]"] ;
25 -> 26 ;
27 [label="X[6] <= 0.2778\ngini = 0.48\nsamples = 10\nvalue = [6, 4]"] ;
26 -> 27 ;
28 [label="gini = 0.0\nsamples = 4\nvalue = [4, 0]"] ;
27 -> 28 ;
29 [label="X[3] <= 0.1667\ngini = 0.4444\nsamples = 6\nvalue = [2, 4]"] ;
27 -> 29 ;
30 [label="gini = 0.0\nsamples = 3\nvalue = [0, 3]"] ;
29 -> 30 ;
31 [label="X[4] <= 0.3889\ngini = 0.4444\nsamples = 3\nvalue = [2, 1]"] ;
29 -> 31 ;
32 [label="gini = 0.0\nsamples = 1\nvalue = [0, 1]"] ;
31 -> 32 ;
33 [label="gini = 0.0\nsamples = 2\nvalue = [2, 0]"] ;
31 -> 33 ;
34 [label="gini = 0.0\nsamples = 9\nvalue = [0, 9]"] ;
26 -> 34 ;
35 [label="X[5] <= 0.0556\ngini = 0.0588\nsamples = 33\nvalue = [1, 32]"] ;
25 -> 35 ;
36 [label="X[4] <= 0.3889\ngini = 0.32\nsamples = 5\nvalue = [1, 4]"] ;
35 -> 36 ;
37 [label="gini = 0.0\nsamples = 1\nvalue = [1, 0]"] ;
36 -> 37 ;
38 [label="gini = 0.0\nsamples = 4\nvalue = [0, 4]"] ;
36 -> 38 ;
39 [label="gini = 0.0\nsamples = 28\nvalue = [0, 28]"] ;
35 -> 39 ;
40 [label="X[1] <= 0.3889\ngini = 0.0172\nsamples = 115\nvalue = [1, 114]"] ;
24 -> 40 ;
41 [label="X[7] <= 0.6667\ngini = 0.1244\nsamples = 15\nvalue = [1, 14]"] ;
40 -> 41 ;
42 [label="gini = 0.0\nsamples = 11\nvalue = [0, 11]"] ;
41 -> 42 ;
43 [label="X[8] <= 0.0556\ngini = 0.375\nsamples = 4\nvalue = [1, 3]"] ;
41 -> 43 ;
44 [label="gini = 0.0\nsamples = 3\nvalue = [0, 3]"] ;
43 -> 44 ;
45 [label="gini = 0.0\nsamples = 1\nvalue = [1, 0]"] ;
43 -> 45 ;
46 [label="gini = 0.0\nsamples = 100\nvalue = [0, 100]"] ;
40 -> 46 ;
}