digraph Tree {
node [shape=box] ;
0 [label="X[7] <= 0.2549\ngini = 0.4669\nsamples = 455\nvalue = [286, 169]"] ;
1 [label="X[20] <= 0.3166\ngini = 0.107\nsamples = 282\nvalue = [266, 16]"] ;
0 -> 1 [labeldistance=2.5, labelangle=45, headlabel="True"] ;
2 [label="X[13] <= 0.0783\ngini = 0.0373\nsamples = 263\nvalue = [258, 5]"] ;
1 -> 2 ;
3 [label="X[24] <= 0.7032\ngini = 0.0228\nsamples = 260\nvalue = [257, 3]"] ;
2 -> 3 ;
4 [label="X[14] <= 0.0543\ngini = 0.0153\nsamples = 259\nvalue = [257, 2]"] ;
3 -> 4 ;
5 [label="X[21] <= 0.4194\ngini = 0.2449\nsamples = 7\nvalue = [6, 1]"] ;
4 -> 5 ;
6 [label="gini = 0.0\nsamples = 6\nvalue = [6, 0]"] ;
5 -> 6 ;
7 [label="gini = 0.0\nsamples = 1\nvalue = [0, 1]"] ;
5 -> 7 ;
8 [label="X[21] <= 0.5685\ngini = 0.0079\nsamples = 252\nvalue = [251, 1]"] ;
4 -> 8 ;
9 [label="gini = 0.0\nsamples = 237\nvalue = [237, 0]"] ;
8 -> 9 ;
10 [label="X[21] <= 0.5741\ngini = 0.1244\nsamples = 15\nvalue = [14, 1]"] ;
8 -> 10 ;
11 [label="gini = 0.0\nsamples = 1\nvalue = [0, 1]"] ;
10 -> 11 ;
12 [label="gini = 0.0\nsamples = 14\nvalue = [14, 0]"] ;
10 -> 12 ;
13 [label="gini = 0.0\nsamples = 1\nvalue = [0, 1]"] ;
3 -> 13 ;
14 [label="X[16] <= 0.0504\ngini = 0.4444\nsamples = 3\nvalue = [1, 2]"] ;
2 -> 14 ;
15 [label="gini = 0.0\nsamples = 2\nvalue = [0, 2]"] ;
14 -> 15 ;
16 [label="gini = 0.0\nsamples = 1\nvalue = [1, 0]"] ;
14 -> 16 ;
17 [label="X[1] <= 0.2191\ngini = 0.4875\nsamples = 19\nvalue = [8, 11]"] ;
1 -> 17 ;
18 [label="gini = 0.0\nsamples = 6\nvalue = [6, 0]"] ;
17 -> 18 ;
19 [label="X[17] <= 0.1918\ngini = 0.2604\nsamples = 13\nvalue = [2, 11]"] ;
17 -> 19 ;
20 [label="gini = 0.0\nsamples = 11\nvalue = [0, 11]"] ;
19 -> 20 ;
21 [label="gini = 0.0\nsamples = 2\nvalue = [2, 0]"] ;
19 -> 21 ;
22 [label="X[27] <= 0.5036\ngini = 0.2045\nsamples = 173\nvalue = [20, 153]"] ;
0 -> 22 [labeldistance=2.5, labelangle=-45, headlabel="False"] ;
23 [label="X[22] <= 0.3229\ngini = 0.4996\nsamples = 35\nvalue = [18, 17]"] ;
22 -> 23 ;
24 [label="X[1] <= 0.3837\ngini = 0.2975\nsamples = 22\nvalue = [18, 4]"] ;
23 -> 24 ;
25 [label="gini = 0.0\nsamples = 18\nvalue = [18, 0]"] ;
24 -> 25 ;
26 [label="gini = 0.0\nsamples = 4\nvalue = [0, 4]"] ;
24 -> 26 ;
27 [label="gini = 0.0\nsamples = 13\nvalue = [0, 13]"] ;
23 -> 27 ;
28 [label="X[19] <= 0.4151\ngini = 0.0286\nsamples = 138\nvalue = [2, 136]"] ;
22 -> 28 ;
29 [label="gini = 0.0\nsamples = 136\nvalue = [0, 136]"] ;
28 -> 29 ;
30 [label="gini = 0.0\nsamples = 2\nvalue = [2, 0]"] ;
28 -> 30 ;
}